digraph Tree {
node [shape=box, style="filled, rounded", color="black", fontname=helvetica] ;
edge [fontname=helvetica] ;
0 [label="landing_page_id_alt_b76ef37428e6799c421989521c0e5077 <= 0.5\ngini = 0.5\nsamples = 1345\nvalue = [688, 657]\nclass = 0", fillcolor="#e581390b"] ;
1 [label="landing_page_id_alt_22c29808c4f815213303f8933030604c <= 0.5\ngini = 0.496\nsamples = 1151\nvalue = [628, 523]\nclass = 0", fillcolor="#e581392b"] ;
0 -> 1 [labeldistance=2.5, labelangle=45, headlabel="True"] ;
3 [label="landing_page_id_alt_40dec9f3d5259a3d2dbcdab2114fae47 <= 0.5\ngini = 0.483\nsamples = 945\nvalue = [560, 385]\nclass = 0", fillcolor="#e5813950"] ;
1 -> 3 ;
5 [label="landing_page_id_alt_ce1a65abd0973638f1c887a6efcfa82d <= 0.5\ngini = 0.474\nsamples = 868\nvalue = [533, 335]\nclass = 0", fillcolor="#e581395f"] ;
3 -> 5 ;
7 [label="landing_page_id_alt_e492ee5eaf1697716985cc6f33f9cd9b <= 0.5\ngini = 0.464\nsamples = 799\nvalue = [506, 293]\nclass = 0", fillcolor="#e581396b"] ;
5 -> 7 ;
9 [label="gini = 0.47\nsamples = 754\nvalue = [469, 285]\nclass = 0", fillcolor="#e5813964"] ;
7 -> 9 ;
10 [label="gini = 0.292\nsamples = 45\nvalue = [37, 8]\nclass = 0", fillcolor="#e58139c8"] ;
7 -> 10 ;
8 [label="gini = 0.476\nsamples = 69\nvalue = [27, 42]\nclass = 1", fillcolor="#399de55b"] ;
5 -> 8 ;
6 [label="gini = 0.455\nsamples = 77\nvalue = [27, 50]\nclass = 1", fillcolor="#399de575"] ;
3 -> 6 ;
4 [label="weekday_ind <= 0.5\ngini = 0.442\nsamples = 206\nvalue = [68, 138]\nclass = 1", fillcolor="#399de581"] ;
1 -> 4 ;
11 [label="gini = 0.493\nsamples = 34\nvalue = [15, 19]\nclass = 1", fillcolor="#399de536"] ;
4 -> 11 ;
12 [label="gini = 0.426\nsamples = 172\nvalue = [53, 119]\nclass = 1", fillcolor="#399de58d"] ;
4 -> 12 ;
2 [label="gini = 0.427\nsamples = 194\nvalue = [60, 134]\nclass = 1", fillcolor="#399de58d"] ;
0 -> 2 [labeldistance=2.5, labelangle=-45, headlabel="False"] ;
}